<?xml version="1.0"?>
<opencv_storage>
<cascade>
  <stageType>BOOST</stageType>
  <featureType>HAAR</featureType>
  <height>50</height>
  <width>50</width>
  <stageParams>
    <boostType>GAB</boostType>
    <minHitRate>9.9500000476837158e-01</minHitRate>
    <maxFalseAlarm>5.0000000000000000e-01</maxFalseAlarm>
    <weightTrimRate>9.4999998807907104e-01</weightTrimRate>
    <maxDepth>1</maxDepth>
    <maxWeakCount>100</maxWeakCount></stageParams>
  <featureParams>
    <maxCatCount>0</maxCatCount>
    <featSize>1</featSize>
    <mode>BASIC</mode></featureParams>
  <stageNum>6</stageNum>
  <stages>
    <!-- stage 0 -->
    <_>
      <maxWeakCount>11</maxWeakCount>
      <stageThreshold>-1.2303651571273804e+00</stageThreshold>
      <weakClassifiers>
        <_>
          <internalNodes>
            0 -1 7 9.8156332969665527e-02</internalNodes>
          <leafValues>
            -4.1284403204917908e-01 7.8707224130630493e-01</leafValues></_>
        <_>
          <internalNodes>
            0 -1 9 -1.1458877474069595e-02</internalNodes>
          <leafValues>
            5.7755225896835327e-01 -3.9786389470100403e-01</leafValues></_>
        <_>
          <internalNodes>
            0 -1 28 4.5479580760002136e-02</internalNodes>
          <leafValues>
            -2.5755593180656433e-01 5.3787928819656372e-01</leafValues></_>
        <_>
          <internalNodes>
            0 -1 27 9.7109630703926086e-02</internalNodes>
          <leafValues>
            -1.9481822848320007e-01 7.3888629674911499e-01</leafValues></_>
        <_>
          <internalNodes>
            0 -1 24 4.6760350465774536e-02</internalNodes>
          <leafValues>
            -2.1898670494556427e-01 6.9773018360137939e-01</leafValues></_>
        <_>
          <internalNodes>
            0 -1 34 -8.0412261013407260e-05</internalNodes>
          <leafValues>
            -4.1802898049354553e-01 2.8597792983055115e-01</leafValues></_>
        <_>
          <internalNodes>
            0 -1 26 -1.5815970255061984e-04</internalNodes>
          <leafValues>
            -7.5323247909545898e-01 1.6231556236743927e-01</leafValues></_>
        <_>
          <internalNodes>
            0 -1 8 -9.0426357928663492e-04</internalNodes>
          <leafValues>
            4.7685775160789490e-01 -2.5009283423423767e-01</leafValues></_>
        <_>
          <internalNodes>
            0 -1 5 8.0263838754035532e-05</internalNodes>
          <leafValues>
            2.8018295764923096e-01 -3.9684662222862244e-01</leafValues></_>
        <_>
          <internalNodes>
            0 -1 14 -2.4649061262607574e-02</internalNodes>
          <leafValues>
            7.4593168497085571e-01 -1.7213937640190125e-01</leafValues></_>
        <_>
          <internalNodes>
            0 -1 16 1.2945339083671570e-02</internalNodes>
          <leafValues>
            -1.7449311912059784e-01 6.2248891592025757e-01</leafValues></_></weakClassifiers></_>
    <!-- stage 1 -->
    <_>
      <maxWeakCount>11</maxWeakCount>
      <stageThreshold>-1.0185567140579224e+00</stageThreshold>
      <weakClassifiers>
        <_>
          <internalNodes>
            0 -1 18 7.7996186912059784e-02</internalNodes>
          <leafValues>
            -3.8391503691673279e-01 7.3643410205841064e-01</leafValues></_>
        <_>
          <internalNodes>
            0 -1 1 -2.0909484475851059e-02</internalNodes>
          <leafValues>
            5.1559758186340332e-01 -3.3038213849067688e-01</leafValues></_>
        <_>
          <internalNodes>
            0 -1 20 -5.0629265606403351e-03</internalNodes>
          <leafValues>
            4.5538431406021118e-01 -3.1198847293853760e-01</leafValues></_>
        <_>
          <internalNodes>
            0 -1 15 4.8626353964209557e-03</internalNodes>
          <leafValues>
            -2.8141885995864868e-01 5.2171766757965088e-01</leafValues></_>
        <_>
          <internalNodes>
            0 -1 11 2.5198783259838820e-04</internalNodes>
          <leafValues>
            2.3911699652671814e-01 -5.7591009140014648e-01</leafValues></_>
        <_>
          <internalNodes>
            0 -1 36 -1.3224876020103693e-03</internalNodes>
          <leafValues>
            -5.6725615262985229e-01 2.3321332037448883e-01</leafValues></_>
        <_>
          <internalNodes>
            0 -1 22 1.9033296848647296e-04</internalNodes>
          <leafValues>
            2.1149568259716034e-01 -6.4858525991439819e-01</leafValues></_>
        <_>
          <internalNodes>
            0 -1 25 1.9751074723899364e-03</internalNodes>
          <leafValues>
            2.3244810104370117e-01 -5.7709789276123047e-01</leafValues></_>
        <_>
          <internalNodes>
            0 -1 31 -7.1738013502908871e-06</internalNodes>
          <leafValues>
            -4.1342633962631226e-01 3.1296536326408386e-01</leafValues></_>
        <_>
          <internalNodes>
            0 -1 13 -3.2110083848237991e-03</internalNodes>
          <leafValues>
            7.1678590774536133e-01 -2.4054931104183197e-01</leafValues></_>
        <_>
          <internalNodes>
            0 -1 12 6.2473077559843659e-04</internalNodes>
          <leafValues>
            -2.4537597596645355e-01 5.3143250942230225e-01</leafValues></_></weakClassifiers></_>
    <!-- stage 2 -->
    <_>
      <maxWeakCount>7</maxWeakCount>
      <stageThreshold>-8.8681316375732422e-01</stageThreshold>
      <weakClassifiers>
        <_>
          <internalNodes>
            0 -1 4 1.4137825369834900e-01</internalNodes>
          <leafValues>
            -3.5014006495475769e-01 9.2118227481842041e-01</leafValues></_>
        <_>
          <internalNodes>
            0 -1 17 -5.0026306416839361e-04</internalNodes>
          <leafValues>
            6.3730627298355103e-01 -2.9152110219001770e-01</leafValues></_>
        <_>
          <internalNodes>
            0 -1 37 2.7071351723861881e-05</internalNodes>
          <leafValues>
            4.9845585227012634e-01 -3.9172798395156860e-01</leafValues></_>
        <_>
          <internalNodes>
            0 -1 10 -1.4532281784340739e-04</internalNodes>
          <leafValues>
            -3.7333065271377563e-01 5.4302918910980225e-01</leafValues></_>
        <_>
          <internalNodes>
            0 -1 35 -3.1318775199906668e-06</internalNodes>
          <leafValues>
            -4.6236902475357056e-01 4.9738478660583496e-01</leafValues></_>
        <_>
          <internalNodes>
            0 -1 23 5.5840355344116688e-04</internalNodes>
          <leafValues>
            -2.9767170548439026e-01 8.1248492002487183e-01</leafValues></_>
        <_>
          <internalNodes>
            0 -1 3 -1.6205597668886185e-02</internalNodes>
          <leafValues>
            -7.1581059694290161e-01 3.8976353406906128e-01</leafValues></_></weakClassifiers></_>
    <!-- stage 3 -->
    <_>
      <maxWeakCount>6</maxWeakCount>
      <stageThreshold>-1.6497217416763306e+00</stageThreshold>
      <weakClassifiers>
        <_>
          <internalNodes>
            0 -1 19 2.5802928954362869e-02</internalNodes>
          <leafValues>
            -5.3571426868438721e-01 8.8704317808151245e-01</leafValues></_>
        <_>
          <internalNodes>
            0 -1 29 -9.4942899886518717e-04</internalNodes>
          <leafValues>
            -3.8459610939025879e-01 7.7305638790130615e-01</leafValues></_>
        <_>
          <internalNodes>
            0 -1 32 1.7388670239597559e-03</internalNodes>
          <leafValues>
            4.9349057674407959e-01 -6.3633590936660767e-01</leafValues></_>
        <_>
          <internalNodes>
            0 -1 2 1.3949405911262147e-05</internalNodes>
          <leafValues>
            7.5266283750534058e-01 -4.7102582454681396e-01</leafValues></_>
        <_>
          <internalNodes>
            0 -1 21 -2.6421059828862781e-06</internalNodes>
          <leafValues>
            7.9659241437911987e-01 -4.2215269804000854e-01</leafValues></_>
        <_>
          <internalNodes>
            0 -1 33 5.9933707234449685e-05</internalNodes>
          <leafValues>
            7.3889225721359253e-01 -4.1864201426506042e-01</leafValues></_></weakClassifiers></_>
    <!-- stage 4 -->
    <_>
      <maxWeakCount>3</maxWeakCount>
      <stageThreshold>-7.1711081266403198e-01</stageThreshold>
      <weakClassifiers>
        <_>
          <internalNodes>
            0 -1 38 3.2275408739224076e-04</internalNodes>
          <leafValues>
            7.7777779102325439e-01 -8.5294115543365479e-01</leafValues></_>
        <_>
          <internalNodes>
            0 -1 30 -9.3371968250721693e-04</internalNodes>
          <leafValues>
            -7.0640867948532104e-01 1.</leafValues></_>
        <_>
          <internalNodes>
            0 -1 6 5.2652128040790558e-02</internalNodes>
          <leafValues>
            8.8216322660446167e-01 -7.8847992420196533e-01</leafValues></_></weakClassifiers></_>
    <!-- stage 5 -->
    <_>
      <maxWeakCount>1</maxWeakCount>
      <stageThreshold>1.</stageThreshold>
      <weakClassifiers>
        <_>
          <internalNodes>
            0 -1 0 -7.0291794836521149e-03</internalNodes>
          <leafValues>
            -1. 1.</leafValues></_></weakClassifiers></_></stages>
  <features>
    <_>
      <rects>
        <_>
          0 10 4 6 -1.</_>
        <_>
          0 12 4 2 3.</_></rects>
      <tilted>0</tilted></_>
    <_>
      <rects>
        <_>
          0 21 16 29 -1.</_>
        <_>
          8 21 8 29 2.</_></rects>
      <tilted>0</tilted></_>
    <_>
      <rects>
        <_>
          0 30 3 6 -1.</_>
        <_>
          0 32 3 2 3.</_></rects>
      <tilted>0</tilted></_>
    <_>
      <rects>
        <_>
          1 3 11 28 -1.</_>
        <_>
          1 17 11 14 2.</_></rects>
      <tilted>0</tilted></_>
    <_>
      <rects>
        <_>
          1 6 45 26 -1.</_>
        <_>
          1 19 45 13 2.</_></rects>
      <tilted>0</tilted></_>
    <_>
      <rects>
        <_>
          1 18 6 4 -1.</_>
        <_>
          4 18 3 4 2.</_></rects>
      <tilted>0</tilted></_>
    <_>
      <rects>
        <_>
          4 28 30 22 -1.</_>
        <_>
          14 28 10 22 3.</_></rects>
      <tilted>0</tilted></_>
    <_>
      <rects>
        <_>
          5 7 36 26 -1.</_>
        <_>
          5 20 36 13 2.</_></rects>
      <tilted>0</tilted></_>
    <_>
      <rects>
        <_>
          5 31 20 3 -1.</_>
        <_>
          5 32 20 1 3.</_></rects>
      <tilted>0</tilted></_>
    <_>
      <rects>
        <_>
          7 0 30 8 -1.</_>
        <_>
          7 4 30 4 2.</_></rects>
      <tilted>0</tilted></_>
    <_>
      <rects>
        <_>
          7 4 6 8 -1.</_>
        <_>
          7 8 6 4 2.</_></rects>
      <tilted>0</tilted></_>
    <_>
      <rects>
        <_>
          7 43 2 4 -1.</_>
        <_>
          8 43 1 4 2.</_></rects>
      <tilted>0</tilted></_>
    <_>
      <rects>
        <_>
          13 24 17 2 -1.</_>
        <_>
          13 25 17 1 2.</_></rects>
      <tilted>0</tilted></_>
    <_>
      <rects>
        <_>
          15 3 16 4 -1.</_>
        <_>
          15 3 8 2 2.</_>
        <_>
          23 5 8 2 2.</_></rects>
      <tilted>0</tilted></_>
    <_>
      <rects>
        <_>
          16 7 29 8 -1.</_>
        <_>
          16 11 29 4 2.</_></rects>
      <tilted>0</tilted></_>
    <_>
      <rects>
        <_>
          16 33 33 4 -1.</_>
        <_>
          16 35 33 2 2.</_></rects>
      <tilted>0</tilted></_>
    <_>
      <rects>
        <_>
          18 7 11 10 -1.</_>
        <_>
          18 12 11 5 2.</_></rects>
      <tilted>0</tilted></_>
    <_>
      <rects>
        <_>
          18 41 10 6 -1.</_>
        <_>
          18 43 10 2 3.</_></rects>
      <tilted>0</tilted></_>
    <_>
      <rects>
        <_>
          19 7 22 26 -1.</_>
        <_>
          19 20 22 13 2.</_></rects>
      <tilted>0</tilted></_>
    <_>
      <rects>
        <_>
          19 8 13 26 -1.</_>
        <_>
          19 21 13 13 2.</_></rects>
      <tilted>0</tilted></_>
    <_>
      <rects>
        <_>
          20 0 9 8 -1.</_>
        <_>
          20 4 9 4 2.</_></rects>
      <tilted>0</tilted></_>
    <_>
      <rects>
        <_>
          20 41 4 6 -1.</_>
        <_>
          20 43 4 2 3.</_></rects>
      <tilted>0</tilted></_>
    <_>
      <rects>
        <_>
          20 43 3 1 -1.</_>
        <_>
          21 43 1 1 3.</_></rects>
      <tilted>0</tilted></_>
    <_>
      <rects>
        <_>
          20 44 24 1 -1.</_>
        <_>
          28 44 8 1 3.</_></rects>
      <tilted>0</tilted></_>
    <_>
      <rects>
        <_>
          21 5 18 22 -1.</_>
        <_>
          30 5 9 22 2.</_></rects>
      <tilted>0</tilted></_>
    <_>
      <rects>
        <_>
          23 1 6 14 -1.</_>
        <_>
          25 1 2 14 3.</_></rects>
      <tilted>0</tilted></_>
    <_>
      <rects>
        <_>
          24 46 2 1 -1.</_>
        <_>
          25 46 1 1 2.</_></rects>
      <tilted>0</tilted></_>
    <_>
      <rects>
        <_>
          25 8 19 38 -1.</_>
        <_>
          25 27 19 19 2.</_></rects>
      <tilted>0</tilted></_>
    <_>
      <rects>
        <_>
          34 3 16 47 -1.</_>
        <_>
          42 3 8 47 2.</_></rects>
      <tilted>0</tilted></_>
    <_>
      <rects>
        <_>
          35 21 13 8 -1.</_>
        <_>
          35 25 13 4 2.</_></rects>
      <tilted>0</tilted></_>
    <_>
      <rects>
        <_>
          38 19 7 10 -1.</_>
        <_>
          38 24 7 5 2.</_></rects>
      <tilted>0</tilted></_>
    <_>
      <rects>
        <_>
          39 44 4 1 -1.</_>
        <_>
          41 44 2 1 2.</_></rects>
      <tilted>0</tilted></_>
    <_>
      <rects>
        <_>
          40 7 6 6 -1.</_>
        <_>
          40 9 6 2 3.</_></rects>
      <tilted>0</tilted></_>
    <_>
      <rects>
        <_>
          40 29 9 3 -1.</_>
        <_>
          43 29 3 3 3.</_></rects>
      <tilted>0</tilted></_>
    <_>
      <rects>
        <_>
          42 29 8 10 -1.</_>
        <_>
          46 29 4 10 2.</_></rects>
      <tilted>0</tilted></_>
    <_>
      <rects>
        <_>
          43 0 4 3 -1.</_>
        <_>
          45 0 2 3 2.</_></rects>
      <tilted>0</tilted></_>
    <_>
      <rects>
        <_>
          43 26 6 24 -1.</_>
        <_>
          46 26 3 24 2.</_></rects>
      <tilted>0</tilted></_>
    <_>
      <rects>
        <_>
          44 33 6 8 -1.</_>
        <_>
          44 33 3 4 2.</_>
        <_>
          47 37 3 4 2.</_></rects>
      <tilted>0</tilted></_>
    <_>
      <rects>
        <_>
          47 45 1 3 -1.</_>
        <_>
          47 46 1 1 3.</_></rects>
      <tilted>0</tilted></_></features></cascade>
</opencv_storage>
